{"learner":{"attributes":{"best_iteration":"4","best_ntree_limit":"5"},"feature_names":[],"feature_types":[],"gradient_booster":{"model":{"gbtree_model_param":{"num_parallel_tree":"1","num_trees":"10","size_leaf_vector":"0"},"tree_info":[0,1,0,1,0,1,0,1,0,1],"trees":[{"base_weights":[-1.9444445E-1,-1.3962264E-1,-7.6E-1,-1.7213115E-1,2.173913E-1,2E-1,-9.0909094E-1,-3.5211268E-1,-9.714286E-2,6.363636E-1,-1.4285715E-1,-2.857143E-1,-5.294118E-1,3.0927835E-2,-2.5E-1,2E-1,7.5E-1,6E-1,-4.5454547E-1,-3.846154E-1,-5.263158E-2,-1.4285715E-1,-6.666667E-1,-7.8947365E-2,3.9130434E-1,3.2258064E-2,-4.117647E-1,-2.5E-1,-6E-1,-5E-1,-1.764706E-1,-0E0,-9.090909E-2,-2.0930232E-1,8.571429E-2,6E-1,2E-1,-7.777778E-1,3.3333334E-1,-4.8387095E-1,-2.7272728E-1,-5E-1,-0E0],"categories":[],"categories_nodes":[],"categories_segments":[],"categories_sizes":[],"default_left":[1,1,1,1,1,0,0,1,1,1,1,1,1,1,1,0,0,0,1,1,1,0,0,1,1,1,1,1,0,0,0,1,1,0,0,0,0,0,0,0,0,0,0],"id":0,"left_children":[1,3,5,7,9,-1,-1,11,13,15,17,19,21,23,25,-1,-1,-1,27,29,-1,-1,-1,33,35,37,39,41,-1,-1,-1,-1,-1,-1,-1,-1,-1,-1,-1,-1,-1,-1,-1],"loss_changes":[4.358574E0,1.5752139E0,1.9709096E0,1.6123686E0,1.8266516E0,0E0,0E0,2.666583E-1,1.7206774E0,1.22727156E-1,1.8935064E0,6.252167E-1,3.5574245E-1,1.95132E0,1.8396583E0,0E0,0E0,0E0,1.3636351E-2,3.8009048E-1,1.9138757E-2,0E0,0E0,8.3358973E-1,3.3913028E-1,4.039427E0,1.2368488E-1,2.5E-1,0E0,0E0,0E0,0E0,0E0,0E0,0E0,0E0,0E0,0E0,0E0,0E0,0E0,0E0,0E0],"parents":[2147483647,0,0,1,1,2,2,3,3,4,4,7,7,8,8,9,9,10,10,11,11,12,12,13,13,14,14,18,18,19,19,20,20,23,23,24,24,25,25,26,26,27,27],"right_children":[2,4,6,8,10,-1,-1,12,14,16,18,20,22,24,26,-1,-1,-1,28,30,-1,-1,-1,34,36,38,40,42,-1,-1,-1,-1,-1,-1,-1,-1,-1,-1,-1,-1,-1,-1,-1],"split_conditions":[5E-1,5E-1,5E-1,5E-1,5E-1,6.0000002E-2,-2.7272728E-1,5E-1,5E-1,5E-1,5E-1,5E-1,5E-1,5E-1,5E-1,6.0000002E-2,2.2500001E-1,1.8E-1,5E-1,5E-1,-1.5789475E-2,-4.2857148E-2,-2.0000002E-1,5E-1,5E-1,5E-1,5E-1,5E-1,-1.8E-1,-1.5E-1,-5.294118E-2,-0E0,-2.727273E-2,-6.27907E-2,2.5714288E-2,1.8E-1,6.0000002E-2,-2.3333335E-1,1.0000001E-1,-1.4516129E-1,-8.1818186E-2,-1.5E-1,-0E0],"split_indices":[6,7,2,0,2,0,0,2,5,4,0,3,3,3,1,0,0,0,1,1,1,0,0,1,1,4,2,4,0,0,0,2147483647,2147483647,0,0,0,0,0,0,0,0,0,0],"split_type":[0,0,0,0,0,0,0,0,0,0,0,0,0,0,0,0,0,0,0,0,0,0,0,0,0,0,0,0,0,0,0,0,0,0,0,0,0,0,0,0,0,0,0],"sum_hessian":[1.43E2,1.315E2,1.15E1,1.21E2,1.05E1,1.5E0,1E1,3.45E1,8.65E1,4.5E0,6E0,2.7E1,7.5E0,4.75E1,3.9E1,1.5E0,3E0,1.5E0,4.5E0,1.85E1,8.5E0,2.5E0,5E0,3.7E1,1.05E1,1.45E1,2.45E1,3E0,1.5E0,1.1E1,7.5E0,4E0,4.5E0,2.05E1,1.65E1,4E0,6.5E0,3.5E0,1.1E1,1.45E1,1E1,1E0,2E0],"tree_param":{"num_deleted":"2","num_feature":"8","num_nodes":"43","size_leaf_vector":"0"}},{"base_weights":[1.9444445E-1,1.3962264E-1,7.6E-1,1.7213115E-1,-2.173913E-1,-2E-1,9.0909094E-1,3.5211268E-1,9.714286E-2,-6.363636E-1,1.4285715E-1,2.857143E-1,5.294118E-1,-3.0927835E-2,2.5E-1,-2E-1,-7.5E-1,-6E-1,4.5454547E-1,3.846154E-1,5.263158E-2,1.4285715E-1,6.666667E-1,7.8947365E-2,-3.9130434E-1,-3.2258064E-2,4.117647E-1,2.5E-1,6E-1,5E-1,1.764706E-1,-0E0,9.090909E-2,2.0930232E-1,-8.571429E-2,-6E-1,-2E-1,7.777778E-1,-3.3333334E-1,4.8387095E-1,2.7272728E-1,5E-1,-0E0],"categories":[],"categories_nodes":[],"categories_segments":[],"categories_sizes":[],"default_left":[1,1,1,1,1,0,0,1,1,1,1,1,1,1,1,0,0,0,1,1,1,0,0,1,1,1,1,1,0,0,0,1,1,0,0,0,0,0,0,0,0,0,0],"id":1,"left_children":[1,3,5,7,9,-1,-1,11,13,15,17,19,21,23,25,-1,-1,-1,27,29,-1,-1,-1,33,35,37,39,41,-1,-1,-1,-1,-1,-1,-1,-1,-1,-1,-1,-1,-1,-1,-1],"loss_changes":[4.358574E0,1.5752139E0,1.9709096E0,1.6123686E0,1.8266516E0,0E0,0E0,2.666583E-1,1.7206774E0,1.22727156E-1,1.8935064E0,6.252167E-1,3.5574245E-1,1.95132E0,1.8396583E0,0E0,0E0,0E0,1.3636351E-2,3.8009048E-1,1.9138757E-2,0E0,0E0,8.3358973E-1,3.3913028E-1,4.039427E0,1.2368488E-1,2.5E-1,0E0,0E0,0E0,0E0,0E0,0E0,0E0,0E0,0E0,0E0,0E0,0E0,0E0,0E0,0E0],"parents":[2147483647,0,0,1,1,2,2,3,3,4,4,7,7,8,8,9,9,10,10,11,11,12,12,13,13,14,14,18,18,19,19,20,20,23,23,24,24,25,25,26,26,27,27],"right_children":[2,4,6,8,10,-1,-1,12,14,16,18,20,22,24,26,-1,-1,-1,28,30,-1,-1,-1,34,36,38,40,42,-1,-1,-1,-1,-1,-1,-1,-1,-1,-1,-1,-1,-1,-1,-1],"split_conditions":[5E-1,5E-1,5E-1,5E-1,5E-1,-6.0000002E-2,2.7272728E-1,5E-1,5E-1,5E-1,5E-1,5E-1,5E-1,5E-1,5E-1,-6.0000002E-2,-2.2500001E-1,-1.8E-1,5E-1,5E-1,1.5789475E-2,4.2857148E-2,2.0000002E-1,5E-1,5E-1,5E-1,5E-1,5E-1,1.8E-1,1.5E-1,5.294118E-2,-0E0,2.727273E-2,6.27907E-2,-2.5714288E-2,-1.8E-1,-6.0000002E-2,2.3333335E-1,-1.0000001E-1,1.4516129E-1,8.1818186E-2,1.5E-1,-0E0],"split_indices":[6,7,2,0,2,0,0,2,5,4,0,3,3,3,1,0,0,0,1,1,1,0,0,1,1,4,2,4,0,0,0,2147483647,2147483647,0,0,0,0,0,0,0,0,0,0],"split_type":[0,0,0,0,0,0,0,0,0,0,0,0,0,0,0,0,0,0,0,0,0,0,0,0,0,0,0,0,0,0,0,0,0,0,0,0,0,0,0,0,0,0,0],"sum_hessian":[1.43E2,1.315E2,1.15E1,1.21E2,1.05E1,1.5E0,1E1,3.45E1,8.65E1,4.5E0,6E0,2.7E1,7.5E0,4.75E1,3.9E1,1.5E0,3E0,1.5E0,4.5E0,1.85E1,8.5E0,2.5E0,5E0,3.7E1,1.05E1,1.45E1,2.45E1,3E0,1.5E0,1.1E1,7.5E0,4E0,4.5E0,2.05E1,1.65E1,4E0,6.5E0,3.5E0,1.1E1,1.45E1,1E1,1E0,2E0],"tree_param":{"num_deleted":"2","num_feature":"8","num_nodes":"43","size_leaf_vector":"0"}},{"base_weights":[-1.4401044E-1,-4.1076116E-2,-3.1968662E-1,-8.696355E-2,5.8106387E-1,-2.178531E-1,-7.130479E-1,-2.1026804E-1,-2.6904272E-2,-4.0467757E-1,-7.185489E-2,-2.8414476E-1,-3.8513888E-2,4.7757864E-2,-1.4739764E-1,-4.891089E-1,1.1129279E-1,2.3112749E-1,-2.2437565E-1,-3.7106186E-1,-1.3012262E-1,1.2633077E-2,-7.8007385E-2,1.5935345E-1,-1.4653905E-1,2.4828473E-1,-3.5593975E-1,5.4052114E-1,-1.4307483E-2,-3.5767302E-1,-8.8363916E-2,-6.542547E-2,4.2843473E-1,-1.749272E-1,-6.009941E-2,3.3464617E-1,1.21228985E-1,-2.6471114E-1,-4.9287307E-1,-1.6129655E-1,1.3785917E-1,-6.424199E-1,-2.0385659E-1,2.1063368E-1,-3.72435E-1],"categories":[],"categories_nodes":[],"categories_segments":[],"categories_sizes":[],"default_left":[1,1,1,1,0,1,0,1,1,1,1,1,1,1,1,0,0,1,1,0,0,1,1,1,1,1,1,0,1,1,1,0,0,1,1,0,0,0,0,0,0,0,0,0,0],"id":2,"left_children":[1,3,5,7,-1,9,-1,11,13,15,17,19,-1,23,25,-1,-1,27,29,-1,-1,-1,-1,31,-1,35,37,-1,39,41,43,-1,-1,-1,-1,-1,-1,-1,-1,-1,-1,-1,-1,-1,-1],"loss_changes":[2.5482965E0,2.6330895E0,1.9350576E0,6.246931E-1,0E0,1.1408873E0,0E0,3.409512E-1,5.3229004E-1,8.6472845E-1,1.220698E0,2.0922089E-1,2.0170934E-2,8.213527E-1,1.9517279E0,0E0,0E0,6.8826115E-1,2.8261662E-1,0E0,0E0,0E0,0E0,1.470932E0,2.3712575E-2,5.141443E-2,5.9396744E-2,0E0,1.5580392E-1,2.3804426E-1,9.198776E-1,0E0,0E0,0E0,0E0,0E0,0E0,0E0,0E0,0E0,0E0,0E0,0E0,0E0,0E0],"parents":[2147483647,0,0,1,1,2,2,3,3,5,5,7,7,8,8,9,9,10,10,11,11,12,12,13,13,14,14,17,17,18,18,23,23,24,24,25,25,26,26,28,28,29,29,30,30],"right_children":[2,4,6,8,-1,10,-1,12,14,16,18,20,-1,24,26,-1,-1,28,30,-1,-1,-1,-1,32,-1,36,38,-1,40,42,44,-1,-1,-1,-1,-1,-1,-1,-1,-1,-1,-1,-1,-1,-1],"split_conditions":[5E-1,5E-1,5E-1,5E-1,1.7431916E-1,5E-1,-2.1391438E-1,5E-1,5E-1,5E-1,5E-1,5E-1,-1.1554167E-2,5E-1,5E-1,-1.4673267E-1,3.3387836E-2,5E-1,5E-1,-1.11318566E-1,-3.9036788E-2,3.7899232E-3,-2.3402216E-2,5E-1,-4.3961715E-2,5E-1,5E-1,1.6215634E-1,5E-1,5E-1,5E-1,-1.9627642E-2,1.2853043E-1,-5.2478164E-2,-1.8029824E-2,1.00393854E-1,3.6368698E-2,-7.941335E-2,-1.4786193E-1,-4.8388965E-2,4.1357752E-2,-1.9272597E-1,-6.1156977E-2,6.319011E-2,-1.1173051E-1],"split_indices":[2,7,6,0,0,4,0,3,5,7,5,1,1,4,1,0,0,1,3,0,0,2147483647,2147483647,1,3,3,3,0,3,1,1,0,0,2147483647,2147483647,0,0,0,0,0,0,0,0,0,0],"split_type":[0,0,0,0,0,0,0,0,0,0,0,0,0,0,0,0,0,0,0,0,0,0,0,0,0,0,0,0,0,0,0,0,0,0,0,0,0,0,0,0,0,0,0,0,0],"sum_hessian":[1.4064754E2,8.946243E1,5.1185104E1,8.41183E1,5.344129E0,4.1893517E1,9.291584E0,2.6733067E1,5.7385235E1,1.760006E1,2.4293459E1,1.8235184E1,8.497881E0,3.580363E1,2.1581604E1,1.5169795E1,2.430264E0,7.9618554E0,1.6331604E1,1.0756166E1,7.479018E0,3.999003E0,4.4988785E0,2.2855999E1,1.2947633E1,7.382903E0,1.4198701E1,2.9901693E0,4.9716864E0,7.4250317E0,8.906571E0,1.2865539E1,9.99046E0,8.976059E0,3.9715738E0,3.4226382E0,3.9602652E0,1.0281817E1,3.916883E0,2.4983475E0,2.4733388E0,1.4900663E0,5.934965E0,4.465232E0,4.4413395E0],"tree_param":{"num_deleted":"4","num_feature":"8","num_nodes":"45","size_leaf_vector":"0"}},{"base_weights":[1.4401048E-1,4.1076157E-2,3.1968665E-1,8.6963594E-2,-5.8106387E-1,2.1785314E-1,7.130479E-1,2.1026804E-1,2.6904339E-2,4.0467763E-1,7.185495E-2,2.8414473E-1,3.8513992E-2,-4.7757786E-2,1.4739768E-1,4.8910895E-1,-1.1129281E-1,-2.311274E-1,2.243757E-1,3.7106186E-1,1.3012251E-1,-1.2632982E-2,7.800748E-2,-1.5935338E-1,1.4653912E-1,-2.4828473E-1,3.5593984E-1,-5.405211E-1,1.4307568E-2,3.5767308E-1,8.8363945E-2,6.5425515E-2,-4.2843464E-1,1.749273E-1,6.009947E-2,-3.346462E-1,-1.21228985E-1,2.647112E-1,4.9287313E-1,1.6129664E-1,-1.378591E-1,6.424199E-1,2.0385665E-1,-2.1063368E-1,3.7243506E-1],"categories":[],"categories_nodes":[],"categories_segments":[],"categories_sizes":[],"default_left":[1,1,1,1,0,1,0,1,1,1,1,1,1,1,1,0,0,1,1,0,0,1,1,1,1,1,1,0,1,1,1,0,0,1,1,0,0,0,0,0,0,0,0,0,0],"id":3,"left_children":[1,3,5,7,-1,9,-1,11,13,15,17,19,-1,23,25,-1,-1,27,29,-1,-1,-1,-1,31,-1,35,37,-1,39,41,43,-1,-1,-1,-1,-1,-1,-1,-1,-1,-1,-1,-1,-1,-1],"loss_changes":[2.5482962E0,2.6330903E0,1.9350572E0,6.246927E-1,0E0,1.1408873E0,0E0,3.4095073E-1,5.3228986E-1,8.6472845E-1,1.2206976E0,2.0922124E-1,2.0170923E-2,8.213528E-1,1.9517283E0,0E0,0E0,6.882614E-1,2.826168E-1,0E0,0E0,0E0,0E0,1.4709318E0,2.3712546E-2,5.141443E-2,5.9396744E-2,0E0,1.5580393E-1,2.3804402E-1,9.198778E-1,0E0,0E0,0E0,0E0,0E0,0E0,0E0,0E0,0E0,0E0,0E0,0E0,0E0,0E0],"parents":[2147483647,0,0,1,1,2,2,3,3,5,5,7,7,8,8,9,9,10,10,11,11,12,12,13,13,14,14,17,17,18,18,23,23,24,24,25,25,26,26,28,28,29,29,30,30],"right_children":[2,4,6,8,-1,10,-1,12,14,16,18,20,-1,24,26,-1,-1,28,30,-1,-1,-1,-1,32,-1,36,38,-1,40,42,44,-1,-1,-1,-1,-1,-1,-1,-1,-1,-1,-1,-1,-1,-1],"split_conditions":[5E-1,5E-1,5E-1,5E-1,-1.7431916E-1,5E-1,2.1391438E-1,5E-1,5E-1,5E-1,5E-1,5E-1,1.1554198E-2,5E-1,5E-1,1.4673269E-1,-3.3387844E-2,5E-1,5E-1,1.11318566E-1,3.9036755E-2,-3.7898947E-3,2.3402246E-2,5E-1,4.3961737E-2,5E-1,5E-1,-1.6215633E-1,5E-1,5E-1,5E-1,1.9627655E-2,-1.285304E-1,5.247819E-2,1.8029843E-2,-1.0039386E-1,-3.6368698E-2,7.941336E-2,1.4786194E-1,4.838899E-2,-4.1357733E-2,1.9272597E-1,6.1156996E-2,-6.319011E-2,1.1173052E-1],"split_indices":[2,7,6,0,0,4,0,3,5,7,5,1,1,4,1,0,0,1,3,0,0,2147483647,2147483647,1,3,3,3,0,3,1,1,0,0,2147483647,2147483647,0,0,0,0,0,0,0,0,0,0],"split_type":[0,0,0,0,0,0,0,0,0,0,0,0,0,0,0,0,0,0,0,0,0,0,0,0,0,0,0,0,0,0,0,0,0,0,0,0,0,0,0,0,0,0,0,0,0],"sum_hessian":[1.4064754E2,8.946243E1,5.1185104E1,8.41183E1,5.3441296E0,4.1893517E1,9.291584E0,2.6733067E1,5.7385235E1,1.760006E1,2.4293459E1,1.8235184E1,8.497881E0,3.580363E1,2.1581604E1,1.5169796E1,2.430264E0,7.961856E0,1.6331602E1,1.0756166E1,7.479018E0,3.999003E0,4.4988785E0,2.2855999E1,1.2947633E1,7.382903E0,1.4198701E1,2.9901693E0,4.9716864E0,7.425031E0,8.906571E0,1.2865539E1,9.99046E0,8.976059E0,3.971574E0,3.4226382E0,3.9602652E0,1.0281817E1,3.916883E0,2.4983475E0,2.4733388E0,1.4900663E0,5.934965E0,4.465232E0,4.4413395E0],"tree_param":{"num_deleted":"4","num_feature":"8","num_nodes":"45","size_leaf_vector":"0"}},{"base_weights":[-1.08894214E-1,-7.609558E-2,-5.0179553E-1,-3.305681E-2,-1.6410244E-1,1.07015885E-1,-6.120408E-1,-5.887345E-2,4.0424818E-1,-3.0416873E-1,-5.7254422E-2,-1.568749E-1,-1.1063956E-2,6.395853E-2,5.2179766E-1,-6.1067265E-2,-4.705135E-1,1.7979977E-1,-1.7833735E-1,-2.1375947E-1,-2.819118E-2,5.0356258E-2,-1.1128914E-1,-2.4366592E-1,4.867815E-1,4.219561E-1,-1.1177621E-2,-1.0219454E-1,-4.0948004E-1,-2.826853E-1,-9.6256174E-2,2.1882527E-2,-6.858455E-2,-3.1620853E-2,3.2471138E-1,1.9198681E-1,-2.7560192E-1,-1.9608341E-2,-3.812081E-1,-1.2671025E-1,1.0862835E-1,4.8727836E-3,-1.5113267E-1],"categories":[],"categories_nodes":[],"categories_segments":[],"categories_sizes":[],"default_left":[1,1,1,1,1,0,0,1,1,1,1,1,1,0,0,1,0,1,1,1,1,1,1,1,0,0,1,1,0,0,0,1,1,0,0,0,0,0,0,0,0,0,0],"id":4,"left_children":[1,3,5,7,9,-1,-1,11,13,15,17,19,21,-1,-1,23,-1,25,27,29,-1,33,35,37,-1,-1,39,41,-1,-1,-1,-1,-1,-1,-1,-1,-1,-1,-1,-1,-1,-1,-1],"loss_changes":[1.7325304E0,4.793988E-1,7.6406646E-1,1.0084144E0,6.079459E-1,0E0,0E0,3.8820398E-1,1.6618323E-1,6.931094E-1,7.4779946E-1,1.9317114E-1,3.5656214E-1,0E0,0E0,9.5903313E-1,0E0,4.1762683E-1,2.5747758E-1,1.2439251E-1,2.070309E-2,8.20787E-1,1.1479399E0,2.072429E-1,0E0,0E0,9.634177E-2,7.4749604E-2,0E0,0E0,0E0,0E0,0E0,0E0,0E0,0E0,0E0,0E0,0E0,0E0,0E0,0E0,0E0],"parents":[2147483647,0,0,1,1,2,2,3,3,4,4,7,7,8,8,9,9,10,10,11,11,12,12,15,15,17,17,18,18,19,19,20,20,21,21,22,22,23,23,26,26,27,27],"right_children":[2,4,6,8,10,-1,-1,12,14,16,18,20,22,-1,-1,24,-1,26,28,30,-1,34,36,38,-1,-1,40,42,-1,-1,-1,-1,-1,-1,-1,-1,-1,-1,-1,-1,-1,-1,-1],"split_conditions":[5E-1,5E-1,5E-1,5E-1,5E-1,3.2104768E-2,-1.8361226E-1,5E-1,5E-1,5E-1,5E-1,5E-1,5E-1,1.918756E-2,1.565393E-1,5E-1,-1.4115405E-1,5E-1,5E-1,5E-1,-8.457354E-3,5E-1,5E-1,5E-1,1.4603446E-1,1.2658684E-1,5E-1,5E-1,-1.2284402E-1,-8.480559E-2,-2.8876854E-2,6.5647583E-3,-2.0575365E-2,-9.486256E-3,9.741342E-2,5.7596046E-2,-8.268058E-2,-5.8825025E-3,-1.1436243E-1,-3.801308E-2,3.2588504E-2,1.4618351E-3,-4.5339804E-2],"split_indices":[6,2,2,7,4,0,0,0,4,0,5,3,5,0,0,7,0,1,7,1,1,3,1,1,0,0,3,1,0,0,0,2147483647,2147483647,0,0,0,0,0,0,0,0,0,0],"split_type":[0,0,0,0,0,0,0,0,0,0,0,0,0,0,0,0,0,0,0,0,0,0,0,0,0,0,0,0,0,0,0,0,0,0,0,0,0,0,0,0,0,0,0],"sum_hessian":[1.3640718E2,1.2699921E2,9.4079685E0,8.621322E1,4.0785995E1,1.4469149E0,7.961054E0,8.22244E1,3.9888089E0,1.6850306E1,2.393569E1,2.621231E1,5.6012096E1,1.4205652E0,2.5682437E0,7.4011474E0,9.449158E0,7.92849E0,1.6007198E1,1.7718662E1,8.493649E0,3.5037754E1,2.0974342E1,5.967428E0,1.4337196E0,2.9625576E0,4.9659324E0,1.3125527E1,2.881672E0,1.0281757E1,7.436906E0,3.997011E0,4.4966373E0,2.7658237E1,7.379516E0,7.3112936E0,1.3663048E1,2.7044363E0,3.2629917E0,2.498715E0,2.4672177E0,4.399873E0,8.725655E0],"tree_param":{"num_deleted":"2","num_feature":"8","num_nodes":"43","size_leaf_vector":"0"}},{"base_weights":[1.0889421E-1,7.609558E-2,5.0179553E-1,3.305682E-2,1.641024E-1,-1.07015856E-1,6.120408E-1,5.887346E-2,-4.042482E-1,3.0416873E-1,5.7254378E-2,1.5687491E-1,1.1063967E-2,-6.395853E-2,-5.217977E-1,6.1067265E-2,4.705135E-1,-1.7979982E-1,1.7833732E-1,2.1375948E-1,2.8191155E-2,-5.0356258E-2,1.1128917E-1,2.4366592E-1,-4.8678145E-1,-4.2195615E-1,1.117756E-2,1.021945E-1,4.0948004E-1,2.826854E-1,9.62561E-2,-2.188255E-2,6.8584524E-2,3.162084E-2,-3.2471135E-1,-1.9198677E-1,2.7560195E-1,1.9608341E-2,3.812081E-1,1.2671019E-1,-1.0862839E-1,-4.8727947E-3,1.5113261E-1],"categories":[],"categories_nodes":[],"categories_segments":[],"categories_sizes":[],"default_left":[1,1,1,1,1,0,0,1,1,1,1,1,1,0,0,1,0,1,1,1,1,1,1,1,0,0,1,1,0,0,0,1,1,0,0,0,0,0,0,0,0,0,0],"id":5,"left_children":[1,3,5,7,9,-1,-1,11,13,15,17,19,21,-1,-1,23,-1,25,27,29,-1,33,35,37,-1,-1,39,41,-1,-1,-1,-1,-1,-1,-1,-1,-1,-1,-1,-1,-1,-1,-1],"loss_changes":[1.7325304E0,4.7939855E-1,7.6406646E-1,1.0084145E0,6.0794616E-1,0E0,0E0,3.8820392E-1,1.6618323E-1,6.931094E-1,7.477996E-1,1.9317132E-1,3.565623E-1,0E0,0E0,9.5903295E-1,0E0,4.1762683E-1,2.5747764E-1,1.2439281E-1,2.0703088E-2,8.2078683E-1,1.1479399E0,2.0724297E-1,0E0,0E0,9.634176E-2,7.4749574E-2,0E0,0E0,0E0,0E0,0E0,0E0,0E0,0E0,0E0,0E0,0E0,0E0,0E0,0E0,0E0],"parents":[2147483647,0,0,1,1,2,2,3,3,4,4,7,7,8,8,9,9,10,10,11,11,12,12,15,15,17,17,18,18,19,19,20,20,21,21,22,22,23,23,26,26,27,27],"right_children":[2,4,6,8,10,-1,-1,12,14,16,18,20,22,-1,-1,24,-1,26,28,30,-1,34,36,38,-1,-1,40,42,-1,-1,-1,-1,-1,-1,-1,-1,-1,-1,-1,-1,-1,-1,-1],"split_conditions":[5E-1,5E-1,5E-1,5E-1,5E-1,-3.2104757E-2,1.8361226E-1,5E-1,5E-1,5E-1,5E-1,5E-1,5E-1,-1.918756E-2,-1.5653932E-1,5E-1,1.4115405E-1,5E-1,5E-1,5E-1,8.457347E-3,5E-1,5E-1,5E-1,-1.4603443E-1,-1.2658685E-1,5E-1,5E-1,1.2284402E-1,8.480562E-2,2.8876832E-2,-6.5647657E-3,2.0575358E-2,9.486252E-3,-9.741341E-2,-5.759603E-2,8.268059E-2,5.8825025E-3,1.1436243E-1,3.801306E-2,-3.258852E-2,-1.4618385E-3,4.5339786E-2],"split_indices":[6,2,2,7,4,0,0,0,4,0,5,3,5,0,0,7,0,1,7,1,1,3,1,1,0,0,3,1,0,0,0,2147483647,2147483647,0,0,0,0,0,0,0,0,0,0],"split_type":[0,0,0,0,0,0,0,0,0,0,0,0,0,0,0,0,0,0,0,0,0,0,0,0,0,0,0,0,0,0,0,0,0,0,0,0,0,0,0,0,0,0,0],"sum_hessian":[1.3640718E2,1.26999214E2,9.4079685E0,8.621322E1,4.0785995E1,1.4469149E0,7.961054E0,8.222441E1,3.9888089E0,1.6850306E1,2.393569E1,2.6212313E1,5.6012096E1,1.4205652E0,2.5682437E0,7.4011474E0,9.449158E0,7.92849E0,1.6007198E1,1.7718664E1,8.493648E0,3.5037754E1,2.0974342E1,5.9674277E0,1.4337196E0,2.9625573E0,4.9659324E0,1.3125527E1,2.881672E0,1.0281757E1,7.4369063E0,3.9970107E0,4.496637E0,2.7658237E1,7.379516E0,7.311294E0,1.3663049E1,2.7044363E0,3.2629914E0,2.4987152E0,2.4672174E0,4.399873E0,8.725655E0],"tree_param":{"num_deleted":"2","num_feature":"8","num_nodes":"43","size_leaf_vector":"0"}},{"base_weights":[-8.1799835E-2,-5.5514026E-2,-4.36641E-1,-2.2361172E-2,-1.2430043E-1,8.870623E-2,-5.475863E-1,-4.309521E-2,3.4741545E-1,-2.3566583E-1,-4.2775366E-2,-1.17455706E-1,-6.9626705E-3,5.303307E-2,4.5910302E-1,-4.1853864E-2,-3.7161165E-1,1.4251949E-1,-1.375392E-1,-1.61549E-1,-2.0636462E-2,3.8177263E-2,-8.275951E-2,-1.958528E-1,4.2335948E-1,3.398522E-1,-8.75545E-3,-7.5685225E-2,-3.312966E-1,-2.1684365E-1,-7.125966E-2,2.86579E-2,-6.1694544E-2,-2.2469778E-2,2.4627924E-1,1.4385112E-1,-2.0891416E-1,5.6346383E-2,-3.3978286E-1,-9.9823825E-2,8.574513E-2,-1.4348997E-1,-9.717745E-3,-4.2823246E-1,-1.00948E-1],"categories":[],"categories_nodes":[],"categories_segments":[],"categories_sizes":[],"default_left":[1,1,1,1,1,0,0,1,1,1,1,1,1,0,0,1,0,1,1,1,1,1,1,1,0,0,1,1,1,0,0,1,1,0,0,0,0,0,0,0,0,0,0,1,1],"id":6,"left_children":[1,3,5,7,9,-1,-1,11,13,15,17,19,21,-1,-1,23,-1,25,27,29,-1,33,35,37,-1,-1,39,41,-1,-1,-1,-1,-1,-1,-1,-1,-1,-1,-1,-1,-1,-1,-1,-1,-1],"loss_changes":[1.213578E0,2.815995E-1,5.7355285E-1,6.694673E-1,3.5613722E-1,0E0,0E0,2.187579E-1,1.2830293E-1,4.2778832E-1,4.4998008E-1,1.1048558E-1,1.9497204E-1,0E0,0E0,6.6062474E-1,0E0,2.652092E-1,1.753746E-1,7.527289E-2,2.0973358E-2,4.5761922E-1,6.3728344E-1,2.6387423E-1,0E0,0E0,5.9743635E-2,6.11111E-2,4.0531516E-2,0E0,0E0,0E0,0E0,0E0,0E0,0E0,0E0,0E0,0E0,0E0,0E0,0E0,0E0,0E0,0E0],"parents":[2147483647,0,0,1,1,2,2,3,3,4,4,7,7,8,8,9,9,10,10,11,11,12,12,15,15,17,17,18,18,19,19,20,20,21,21,22,22,23,23,26,26,27,27,28,28],"right_children":[2,4,6,8,10,-1,-1,12,14,16,18,20,22,-1,-1,24,-1,26,28,30,-1,34,36,38,-1,-1,40,42,-1,-1,-1,-1,-1,-1,-1,-1,-1,-1,-1,-1,-1,-1,-1,-1,-1],"split_conditions":[5E-1,5E-1,5E-1,5E-1,5E-1,2.661187E-2,-1.642759E-1,5E-1,5E-1,5E-1,5E-1,5E-1,5E-1,1.5909921E-2,1.3773091E-1,5E-1,-1.114835E-1,5E-1,5E-1,5E-1,-6.190939E-3,5E-1,5E-1,5E-1,1.2700786E-1,1.0195567E-1,5E-1,5E-1,-9.938898E-2,-6.50531E-2,-2.1377899E-2,8.59737E-3,-1.8508364E-2,-6.7409337E-3,7.388377E-2,4.3155335E-2,-6.2674254E-2,1.6903916E-2,-1.01934865E-1,-2.9947149E-2,2.5723541E-2,-4.3046992E-2,-2.9153235E-3,-1.2846975E-1,-3.0284401E-2],"split_indices":[6,2,2,7,4,0,0,0,4,0,5,3,5,0,0,7,0,1,7,1,1,3,1,3,0,0,3,3,3,0,0,2147483647,2147483647,0,0,0,0,0,0,0,0,0,0,2147483647,2147483647],"split_type":[0,0,0,0,0,0,0,0,0,0,0,0,0,0,0,0,0,0,0,0,0,0,0,0,0,0,0,0,0,0,0,0,0,0,0,0,0,0,0,0,0,0,0,0,0],"sum_hessian":[1.3170929E2,1.2370216E2,8.007122E0,8.436568E1,3.9336487E1,1.4310899E0,6.576032E0,8.0722855E1,3.6428194E0,1.5826438E1,2.351005E1,2.5661333E1,5.5061523E1,1.407586E0,2.2352333E0,7.0637846E0,8.762653E0,7.7846065E0,1.5725444E1,1.7172218E1,8.489115E0,3.4820747E1,2.0240774E1,5.742017E0,1.3217676E0,2.8371112E0,4.9474955E0,1.2974241E1,2.7512019E0,9.780706E0,7.3915133E0,3.9948776E0,4.4942374E0,2.7653677E1,7.1670704E0,7.188268E0,1.30525055E1,2.3074098E0,3.434607E0,2.4908152E0,2.4566803E0,5.8185134E0,7.155728E0,1.3317212E0,1.4194806E0],"tree_param":{"num_deleted":"4","num_feature":"8","num_nodes":"45","size_leaf_vector":"0"}},{"base_weights":[8.179985E-2,5.5514034E-2,4.3664104E-1,2.2361195E-2,1.24300405E-1,-8.8706255E-2,5.475864E-1,4.309524E-2,-3.4741548E-1,2.356658E-1,4.277535E-2,1.1745574E-1,6.9626924E-3,-5.3033117E-2,-4.5910305E-1,4.1853826E-2,3.7161165E-1,-1.425195E-1,1.3753918E-1,1.6154906E-1,2.0636462E-2,-3.8177248E-2,8.275954E-2,1.9585277E-1,-4.233595E-1,-3.3985224E-1,8.755456E-3,7.56852E-2,3.3129665E-1,2.1684372E-1,7.125969E-2,-2.86579E-2,6.1694544E-2,2.2469787E-2,-2.462792E-1,-1.4385113E-1,2.0891424E-1,-5.6346443E-2,3.3978286E-1,9.9823825E-2,-8.5745126E-2,1.4348997E-1,9.717715E-3,4.2823246E-1,1.0094804E-1],"categories":[],"categories_nodes":[],"categories_segments":[],"categories_sizes":[],"default_left":[1,1,1,1,1,0,0,1,1,1,1,1,1,0,0,1,0,1,1,1,1,1,1,1,0,0,1,1,1,0,0,1,1,0,0,0,0,0,0,0,0,0,0,1,1],"id":7,"left_children":[1,3,5,7,9,-1,-1,11,13,15,17,19,21,-1,-1,23,-1,25,27,29,-1,33,35,37,-1,-1,39,41,-1,-1,-1,-1,-1,-1,-1,-1,-1,-1,-1,-1,-1,-1,-1,-1,-1],"loss_changes":[1.2135782E0,2.8159922E-1,5.7355297E-1,6.694677E-1,3.561371E-1,0E0,0E0,2.1875797E-1,1.2830293E-1,4.2778856E-1,4.4998014E-1,1.1048567E-1,1.9497208E-1,0E0,0E0,6.606247E-1,0E0,2.6520923E-1,1.7537466E-1,7.527298E-2,2.0973358E-2,4.5761916E-1,6.3728386E-1,2.6387438E-1,0E0,0E0,5.9743635E-2,6.1111137E-2,4.0531456E-2,0E0,0E0,0E0,0E0,0E0,0E0,0E0,0E0,0E0,0E0,0E0,0E0,0E0,0E0,0E0,0E0],"parents":[2147483647,0,0,1,1,2,2,3,3,4,4,7,7,8,8,9,9,10,10,11,11,12,12,15,15,17,17,18,18,19,19,20,20,21,21,22,22,23,23,26,26,27,27,28,28],"right_children":[2,4,6,8,10,-1,-1,12,14,16,18,20,22,-1,-1,24,-1,26,28,30,-1,34,36,38,-1,-1,40,42,-1,-1,-1,-1,-1,-1,-1,-1,-1,-1,-1,-1,-1,-1,-1,-1,-1],"split_conditions":[5E-1,5E-1,5E-1,5E-1,5E-1,-2.6611878E-2,1.6427591E-1,5E-1,5E-1,5E-1,5E-1,5E-1,5E-1,-1.5909936E-2,-1.3773093E-1,5E-1,1.114835E-1,5E-1,5E-1,5E-1,6.190939E-3,5E-1,5E-1,5E-1,-1.2700786E-1,-1.01955675E-1,5E-1,5E-1,9.9389E-2,6.505312E-2,2.1377908E-2,-8.59737E-3,1.8508364E-2,6.7409365E-3,-7.3883764E-2,-4.3155342E-2,6.267428E-2,-1.6903933E-2,1.01934865E-1,2.9947149E-2,-2.572354E-2,4.3046992E-2,2.9153146E-3,1.2846975E-1,3.0284414E-2],"split_indices":[6,2,2,7,4,0,0,0,4,0,5,3,5,0,0,7,0,1,7,1,1,3,1,3,0,0,3,3,3,0,0,2147483647,2147483647,0,0,0,0,0,0,0,0,0,0,2147483647,2147483647],"split_type":[0,0,0,0,0,0,0,0,0,0,0,0,0,0,0,0,0,0,0,0,0,0,0,0,0,0,0,0,0,0,0,0,0,0,0,0,0,0,0,0,0,0,0,0,0],"sum_hessian":[1.3170929E2,1.2370216E2,8.007122E0,8.436568E1,3.9336487E1,1.4310899E0,6.5760326E0,8.072286E1,3.6428196E0,1.5826438E1,2.351005E1,2.5661335E1,5.5061523E1,1.407586E0,2.2352335E0,7.0637846E0,8.762653E0,7.7846065E0,1.5725444E1,1.717222E1,8.489115E0,3.4820747E1,2.0240774E1,5.742017E0,1.3217678E0,2.8371115E0,4.9474955E0,1.2974242E1,2.7512019E0,9.780706E0,7.391514E0,3.9948776E0,4.4942374E0,2.7653679E1,7.167071E0,7.1882687E0,1.3052506E1,2.3074098E0,3.434607E0,2.4908152E0,2.4566803E0,5.8185134E0,7.1557283E0,1.3317212E0,1.4194806E0],"tree_param":{"num_deleted":"4","num_feature":"8","num_nodes":"45","size_leaf_vector":"0"}},{"base_weights":[-6.1564952E-2,-4.0341485E-2,-3.8609833E-1,-1.4664846E-2,-9.462109E-2,7.357743E-2,-5.004355E-1,-3.151303E-2,3.0231264E-1,-1.8363677E-1,-3.2521624E-2,-8.7877825E-2,-4.1971197E-3,4.3977104E-2,4.1081157E-1,-2.6106242E-2,-2.969267E-1,1.1409372E-1,-1.07117265E-1,-1.2194507E-1,-1.5105719E-2,2.9035227E-2,-6.1456263E-2,-1.5781529E-1,3.7501702E-1,2.7781844E-1,-6.867641E-3,-2.011104E-1,-1.7250398E-2,-1.6607668E-1,-5.273944E-2,3.3621192E-2,-5.6653872E-2,-7.4619986E-2,1.4532319E-1,-3.6817232E-1,1.4930512E-2,4.3162376E-2,-2.9742652E-1,-7.875419E-2,6.7736804E-2,-4.8653433E-1,-6.569076E-2,2.036198E-1,-2.4567094E-1],"categories":[],"categories_nodes":[],"categories_segments":[],"categories_sizes":[],"default_left":[1,1,1,1,1,0,0,1,1,1,1,1,1,0,0,1,0,1,1,1,1,1,1,1,0,0,1,1,1,1,1,1,1,0,0,0,0,0,0,1,1,0,0,0,0],"id":8,"left_children":[1,3,5,7,9,-1,-1,11,13,15,17,19,21,-1,-1,23,-1,25,27,-1,-1,33,35,37,-1,-1,-1,41,43,-1,-1,-1,-1,-1,-1,-1,-1,-1,-1,-1,-1,-1,-1,-1,-1],"loss_changes":[8.674214E-1,1.6787414E-1,4.442767E-1,4.5614782E-1,2.0860168E-1,0E0,0E0,1.23287044E-1,1.02883935E-1,2.730885E-1,2.7558908E-1,6.302914E-2,1.0672161E-1,0E0,0E0,4.6488932E-1,0E0,1.7231682E-1,1.3570234E-1,4.524395E-2,2.1107337E-2,4.3964717E-1,4.8750946E-1,1.9479428E-1,0E0,0E0,3.7107665E-2,2.756841E-1,5.3015643E-1,0E0,0E0,0E0,0E0,0E0,0E0,0E0,0E0,0E0,0E0,0E0,0E0,0E0,0E0,0E0,0E0],"parents":[2147483647,0,0,1,1,2,2,3,3,4,4,7,7,8,8,9,9,10,10,11,11,12,12,15,15,17,17,18,18,19,19,20,20,21,21,22,22,23,23,26,26,27,27,28,28],"right_children":[2,4,6,8,10,-1,-1,12,14,16,18,20,22,-1,-1,24,-1,26,28,-1,-1,34,36,38,-1,-1,-1,42,44,-1,-1,-1,-1,-1,-1,-1,-1,-1,-1,-1,-1,-1,-1,-1,-1],"split_conditions":[5E-1,5E-1,5E-1,5E-1,5E-1,2.2073228E-2,-1.5013064E-1,5E-1,5E-1,5E-1,5E-1,5E-1,5E-1,1.3193131E-2,1.2324347E-1,5E-1,-8.907802E-2,5E-1,5E-1,-3.658352E-2,-4.531716E-3,5E-1,5E-1,5E-1,1.1250511E-1,8.334553E-2,-2.0602925E-3,5E-1,5E-1,-4.9823005E-2,-1.5821833E-2,1.0086358E-2,-1.6996162E-2,-2.2385996E-2,4.3596957E-2,-1.104517E-1,4.4791535E-3,1.2948713E-2,-8.922796E-2,-2.3626257E-2,2.0321041E-2,-1.459603E-1,-1.9707229E-2,6.108594E-2,-7.3701285E-2],"split_indices":[6,2,2,7,4,0,0,0,4,0,5,3,5,0,0,7,0,1,3,1,1,1,4,1,0,0,3,1,1,2147483647,2147483647,2147483647,2147483647,0,0,0,0,0,0,2147483647,2147483647,0,0,0,0],"split_type":[0,0,0,0,0,0,0,0,0,0,0,0,0,0,0,0,0,0,0,0,0,0,0,0,0,0,0,0,0,0,0,0,0,0,0,0,0,0,0,0,0,0,0,0,0],"sum_hessian":[1.2719869E2,1.2044619E2,6.752498E0,8.262914E1,3.7817047E1,1.416033E0,5.3364654E0,7.931398E1,3.3151631E0,1.473632E1,2.3080727E1,2.5166756E1,5.414723E1,1.3961818E0,1.9189813E0,6.679233E0,8.057087E0,7.604611E0,1.5476115E1,1.6681726E1,8.485029E0,3.4573944E1,1.9573282E1,5.484847E0,1.194386E0,2.6801698E0,4.9244413E0,6.9593525E0,8.516763E0,9.331429E0,7.3502975E0,3.992955E0,4.4920745E0,1.8469322E1,1.6104622E1,3.1410742E0,1.6432209E1,2.5314832E0,2.953364E0,2.4795754E0,2.444866E0,1.4050784E0,5.554274E0,4.3851433E0,4.131619E0],"tree_param":{"num_deleted":"6","num_feature":"8","num_nodes":"45","size_leaf_vector":"0"}},{"base_weights":[6.1564952E-2,4.0341485E-2,3.8609833E-1,1.4664854E-2,9.462107E-2,-7.35774E-2,5.004355E-1,3.151303E-2,-3.0231258E-1,1.8363675E-1,3.2521598E-2,8.787789E-2,4.1970904E-3,-4.3977052E-2,-4.108115E-1,2.610622E-2,2.969267E-1,-1.1409374E-1,1.0711724E-1,1.2194517E-1,1.5105719E-2,-2.9035274E-2,6.1456263E-2,1.578153E-1,-3.7501708E-1,-2.7781844E-1,6.867611E-3,2.0111038E-1,1.7250363E-2,1.660768E-1,5.273952E-2,-3.3621192E-2,5.6653872E-2,7.46199E-2,-1.453232E-1,3.681723E-1,-1.4930505E-2,-4.3162357E-2,2.9742652E-1,7.8754164E-2,-6.773683E-2,4.865343E-1,6.569077E-2,-2.0361982E-1,2.4567093E-1],"categories":[],"categories_nodes":[],"categories_segments":[],"categories_sizes":[],"default_left":[1,1,1,1,1,0,0,1,1,1,1,1,1,0,0,1,0,1,1,1,1,1,1,1,0,0,1,1,1,1,1,1,1,0,0,0,0,0,0,1,1,0,0,0,0],"id":9,"left_children":[1,3,5,7,9,-1,-1,11,13,15,17,19,21,-1,-1,23,-1,25,27,-1,-1,33,35,37,-1,-1,-1,41,43,-1,-1,-1,-1,-1,-1,-1,-1,-1,-1,-1,-1,-1,-1,-1,-1],"loss_changes":[8.674214E-1,1.67874E-1,4.442767E-1,4.5614764E-1,2.0860177E-1,0E0,0E0,1.2328735E-1,1.02883965E-1,2.7308857E-1,2.7558908E-1,6.3029245E-2,1.0672173E-1,0E0,0E0,4.6488944E-1,0E0,1.7231676E-1,1.357024E-1,4.524398E-2,2.1107337E-2,4.396468E-1,4.875094E-1,1.9479421E-1,0E0,0E0,3.710767E-2,2.7568406E-1,5.301565E-1,0E0,0E0,0E0,0E0,0E0,0E0,0E0,0E0,0E0,0E0,0E0,0E0,0E0,0E0,0E0,0E0],"parents":[2147483647,0,0,1,1,2,2,3,3,4,4,7,7,8,8,9,9,10,10,11,11,12,12,15,15,17,17,18,18,19,19,20,20,21,21,22,22,23,23,26,26,27,27,28,28],"right_children":[2,4,6,8,10,-1,-1,12,14,16,18,20,22,-1,-1,24,-1,26,28,-1,-1,34,36,38,-1,-1,-1,42,44,-1,-1,-1,-1,-1,-1,-1,-1,-1,-1,-1,-1,-1,-1,-1,-1],"split_conditions":[5E-1,5E-1,5E-1,5E-1,5E-1,-2.207322E-2,1.5013064E-1,5E-1,5E-1,5E-1,5E-1,5E-1,5E-1,-1.31931165E-2,-1.2324346E-1,5E-1,8.907802E-2,5E-1,5E-1,3.6583554E-2,4.531716E-3,5E-1,5E-1,5E-1,-1.1250513E-1,-8.334553E-2,2.0602834E-3,5E-1,5E-1,4.9823042E-2,1.5821857E-2,-1.0086358E-2,1.6996162E-2,2.238597E-2,-4.359696E-2,1.1045169E-1,-4.4791517E-3,-1.2948708E-2,8.922796E-2,2.3626251E-2,-2.0321049E-2,1.459603E-1,1.9707233E-2,-6.108595E-2,7.3701285E-2],"split_indices":[6,2,2,7,4,0,0,0,4,0,5,3,5,0,0,7,0,1,3,1,1,1,4,1,0,0,3,1,1,2147483647,2147483647,2147483647,2147483647,0,0,0,0,0,0,2147483647,2147483647,0,0,0,0],"split_type":[0,0,0,0,0,0,0,0,0,0,0,0,0,0,0,0,0,0,0,0,0,0,0,0,0,0,0,0,0,0,0,0,0,0,0,0,0,0,0,0,0,0,0,0,0],"sum_hessian":[1.2719869E2,1.204462E2,6.752498E0,8.262915E1,3.7817047E1,1.416033E0,5.3364654E0,7.931399E1,3.315163E0,1.473632E1,2.3080727E1,2.5166756E1,5.414723E1,1.3961818E0,1.9189811E0,6.679233E0,8.057087E0,7.6046114E0,1.5476115E1,1.6681726E1,8.485029E0,3.4573944E1,1.9573284E1,5.484847E0,1.1943862E0,2.68017E0,4.9244413E0,6.9593525E0,8.516763E0,9.331429E0,7.350297E0,3.992955E0,4.4920745E0,1.8469324E1,1.6104622E1,3.1410744E0,1.6432209E1,2.5314832E0,2.9533637E0,2.4795752E0,2.444866E0,1.4050784E0,5.554274E0,4.3851438E0,4.131619E0],"tree_param":{"num_deleted":"6","num_feature":"8","num_nodes":"45","size_leaf_vector":"0"}}]},"name":"gbtree"},"learner_model_param":{"base_score":"5E-1","num_class":"2","num_feature":"8","num_target":"1"},"objective":{"name":"multi:softprob","softmax_multiclass_param":{"num_class":"2"}}},"version":[1,6,1]}